{
  "home_field_advantage": 4.351552486419678,
  "player_model.layers.0.weight": [
    [
      0.5463494658470154,
      0.21004889905452728,
      -0.10237139463424683,
      0.2855411171913147,
      0.21399399638175964,
      -0.09893327951431274,
      0.11855059862136841,
      0.23714177310466766,
      -0.04737051948904991,
      0.1088726818561554,
      0.09510402381420135,
      0.3404611647129059,
      0.14236553013324738,
      0.05329460650682449,
      0.39961275458335876,
      0.39027971029281616,
      0.16180992126464844,
      0.17904847860336304,
      0.26020675897598267
    ],
    [
      -0.24722597002983093,
      0.03559093549847603,
      0.14142729341983795,
      0.04110291227698326,
      -0.040509629994630814,
      0.08156641572713852,
      0.17939229309558868,
      -0.0688062533736229,
      -0.22093962132930756,
      -0.12551195919513702,
      0.04998317360877991,
      0.22626037895679474,
      -0.1488441377878189,
      0.08036384731531143,
      0.19162431359291077,
      0.011051448993384838,
      0.2327592819929123,
      -0.09107749909162521,
      -0.033524040132761
    ],
    [
      0.571209192276001,
      0.24322658777236938,
      0.027390720322728157,
      0.20799373090267181,
      0.26624181866645813,
      -0.053353242576122284,
      0.12470794469118118,
      0.3742470145225525,
      0.17594671249389648,
      0.31941699981689453,
      -0.12094316631555557,
      0.36269617080688477,
      -0.06397394835948944,
      -0.0036695401649922132,
      0.3200127184391022,
      0.10882008820772171,
      0.11640860140323639,
      0.11151029169559479,
      0.34349435567855835
    ],
    [
      -0.17881490290164948,
      0.13807040452957153,
      0.4607223868370056,
      0.2381916493177414,
      0.14648942649364471,
      0.033397261053323746,
      0.17777547240257263,
      0.13334542512893677,
      0.1506119668483734,
      0.017560461536049843,
      0.29294300079345703,
      0.012693159282207489,
      0.0652390792965889,
      0.10378185659646988,
      -0.10726186633110046,
      0.032076723873615265,
      -0.02927631326019764,
      0.07239599525928497,
      0.11426369100809097
    ],
    [
      0.5929805636405945,
      0.1333369016647339,
      -0.16962668299674988,
      -0.022849474102258682,
      0.0119417579844594,
      -0.08060988783836365,
      0.007400818169116974,
      0.18699416518211365,
      0.1911144256591797,
      0.03294024616479874,
      0.03412362560629845,
      0.20610831677913666,
      0.19282811880111694,
      0.10406938940286636,
      0.1530192643404007,
      0.3323419690132141,
      -0.1759275496006012,
      -0.14100120961666107,
      0.2778986394405365
    ],
    [
      0.44289660453796387,
      -0.13290010392665863,
      -0.25505319237709045,
      -0.04282217100262642,
      0.15592128038406372,
      0.11878108233213425,
      0.039040833711624146,
      -0.06800303608179092,
      0.18063734471797943,
      0.08662731200456619,
      -0.05726180970668793,
      0.18385684490203857,
      0.19918155670166016,
      0.38266870379447937,
      0.0449364110827446,
      0.3275270164012909,
      0.015874285250902176,
      0.15435299277305603,
      -0.051097821444272995
    ],
    [
      0.529979407787323,
      0.02675325982272625,
      -0.07922863215208054,
      0.10434908419847488,
      -0.04308485612273216,
      -0.11486360430717468,
      -0.20934714376926422,
      0.016749855130910873,
      -0.09729580581188202,
      0.06774038076400757,
      0.14307160675525665,
      -0.020244965329766273,
      -0.1364951878786087,
      0.0068305185995996,
      -0.1419059783220291,
      0.06665480136871338,
      -0.11954109370708466,
      0.008114682510495186,
      0.05574177950620651
    ],
    [
      0.6145674586296082,
      0.22861841320991516,
      -0.06279861927032471,
      -0.04076257720589638,
      0.07440590858459473,
      0.0561133548617363,
      0.21807843446731567,
      0.17361991107463837,
      0.21781529486179352,
      0.01546739973127842,
      0.07331852614879608,
      0.16577769815921783,
      0.05043775588274002,
      0.37409430742263794,
      0.31709176301956177,
      0.1261283904314041,
      -0.17199142277240753,
      0.10827784240245819,
      0.03435231372714043
    ],
    [
      -0.44167935848236084,
      -0.019948862493038177,
      0.18964093923568726,
      0.19274723529815674,
      0.0027712322771549225,
      0.3368970453739166,
      0.08989018946886063,
      0.3129647970199585,
      0.04611406847834587,
      0.15576179325580597,
      0.04667501524090767,
      -0.08679212629795074,
      0.07690360397100449,
      0.0653771460056305,
      -0.14200282096862793,
      -0.1860666424036026,
      -0.03206484764814377,
      0.10248898714780807,
      0.08448757231235504
    ],
    [
      -0.1491106152534485,
      -0.08860817551612854,
      0.11248112469911575,
      -0.003293086541816592,
      0.1178307980298996,
      0.2670692503452301,
      0.3445165455341339,
      0.38361337780952454,
      0.31435009837150574,
      0.29510003328323364,
      0.0634971484541893,
      0.28206148743629456,
      -0.0659269168972969,
      0.024887826293706894,
      0.0785084143280983,
      0.21440047025680542,
      -0.040670495480298996,
      0.30230236053466797,
      0.2063230723142624
    ],
    [
      0.6421383023262024,
      0.004690088797360659,
      0.05051448941230774,
      -0.1115700751543045,
      0.1505662202835083,
      0.2895951271057129,
      -0.09295075386762619,
      0.022503076121211052,
      0.2917269766330719,
      -0.06155369430780411,
      0.24383112788200378,
      0.32450249791145325,
      0.0007067801780067384,
      0.25354716181755066,
      0.11934934556484222,
      0.3255768418312073,
      -0.04751992225646973,
      0.06455941498279572,
      0.16501465439796448
    ],
    [
      -0.03645185008645058,
      -0.06130416318774223,
      0.12927567958831787,
      -0.18312378227710724,
      0.08203993737697601,
      -0.20691198110580444,
      0.06466080248355865,
      -0.10952256619930267,
      0.053615640848875046,
      -0.11270762979984283,
      0.07494562119245529,
      0.025140482932329178,
      -0.13046550750732422,
      -0.13481110334396362,
      -0.09426575154066086,
      -0.09962951391935349,
      -0.11335629969835281,
      -0.19769488275051117,
      -0.04495587572455406
    ]
  ],
  "player_model.layers.0.bias": [
    -0.1483214795589447,
    0.2574416399002075,
    -0.008395020850002766,
    -0.018291011452674866,
    -0.1434815376996994,
    -0.16267059743404388,
    -0.15961778163909912,
    -0.12461301684379578,
    0.14012253284454346,
    -0.03565593063831329,
    -0.06059408187866211,
    -0.211972177028656
  ],
  "player_model.layers.2.weight": [
    [
      0.19240276515483856,
      -0.025136401876807213,
      0.34333938360214233,
      -0.026110732927918434,
      0.3199186623096466,
      0.49742740392684937,
      0.32467931509017944,
      0.638796329498291,
      0.13379661738872528,
      -0.15903858840465546,
      0.3971422612667084,
      0.1289799064397812
    ],
    [
      0.21443447470664978,
      -0.09103972464799881,
      0.2326427549123764,
      0.42448660731315613,
      0.15624040365219116,
      0.4010423421859741,
      0.04637167230248451,
      0.24649623036384583,
      0.060435205698013306,
      0.4814510643482208,
      0.31520089507102966,
      0.26493436098098755
    ],
    [
      0.04284277558326721,
      -0.020981652662158012,
      0.06242101639509201,
      0.03320515155792236,
      -0.16223257780075073,
      0.01572882942855358,
      -0.2267921417951584,
      -0.10215257853269577,
      0.19825924932956696,
      0.25511401891708374,
      -0.15620604157447815,
      0.2748304307460785
    ],
    [
      0.03696512058377266,
      0.29018068313598633,
      -0.07813890278339386,
      0.3727410137653351,
      -0.3157181739807129,
      -0.46151506900787354,
      -0.32762855291366577,
      -0.3876906633377075,
      0.4061606824398041,
      0.02424047701060772,
      -0.14135663211345673,
      -0.08430524170398712
    ],
    [
      -0.13323785364627838,
      0.44681254029273987,
      0.16897213459014893,
      0.35187822580337524,
      -0.187385693192482,
      0.06364821642637253,
      -0.42237597703933716,
      -0.2919965982437134,
      0.27005958557128906,
      0.0983150377869606,
      -0.15930913388729095,
      0.025970401242375374
    ],
    [
      -0.0019191751489415765,
      0.2187628298997879,
      -0.11908603459596634,
      -0.25779256224632263,
      -0.14697274565696716,
      -0.0212278813123703,
      0.07927173376083374,
      -0.25372233986854553,
      0.021056076511740685,
      0.26595941185951233,
      -0.21618172526359558,
      -0.18214638531208038
    ]
  ],
  "player_model.layers.2.bias": [
    0.01920280046761036,
    0.38837990164756775,
    0.4766004979610443,
    0.23973645269870758,
    0.3465231955051422,
    -0.2577499747276306
  ],
  "player_model.layers.4.weight": [
    [
      0.3385750353336334,
      0.43861618638038635,
      0.23192252218723297,
      0.3530777096748352,
      0.31279534101486206,
      -0.15168780088424683
    ],
    [
      0.32238632440567017,
      0.47566819190979004,
      0.002808842109516263,
      -0.5419803261756897,
      -0.10122941434383392,
      0.24362576007843018
    ],
    [
      -0.4027124047279358,
      0.11335182934999466,
      0.5686997771263123,
      0.6702728271484375,
      0.5909665822982788,
      -0.3520267903804779
    ],
    [
      -0.018561076372861862,
      0.3551883101463318,
      0.43304046988487244,
      -0.3489759564399719,
      -0.3037883937358856,
      -0.2162131369113922
    ]
  ],
  "player_model.layers.4.bias": [
    0.0152351139113307,
    0.1938028335571289,
    0.13603712618350983,
    0.3820042908191681
  ],
  "layers.0.weight": [
    [
      0.21884842216968536,
      0.36858049035072327,
      -0.37895023822784424,
      -0.14499764144420624,
      -0.08009707927703857,
      -0.09498423337936401,
      0.2045792043209076,
      -0.005986189004033804
    ],
    [
      0.08946197479963303,
      -0.3523797392845154,
      0.41908758878707886,
      0.20442171394824982,
      0.21654130518436432,
      0.24654607474803925,
      -0.0009667149279266596,
      0.13019676506519318
    ],
    [
      -0.30060985684394836,
      0.22084566950798035,
      -0.15766240656375885,
      0.324943482875824,
      0.03375446796417236,
      0.19796152412891388,
      0.4296437203884125,
      -0.09658877551555634
    ],
    [
      -0.2635239064693451,
      0.09838994592428207,
      0.012463473714888096,
      0.16583910584449768,
      0.04854041710495949,
      0.1074543371796608,
      0.009522785432636738,
      -0.1328616440296173
    ],
    [
      -0.054993920028209686,
      0.3089374899864197,
      -0.27654170989990234,
      0.11680229753255844,
      -0.05439239740371704,
      -0.0188441164791584,
      0.4595397412776947,
      0.15015192329883575
    ],
    [
      0.264489084482193,
      0.17092198133468628,
      0.1988161951303482,
      -0.15460357069969177,
      0.2312801629304886,
      0.4597480595111847,
      -0.4190692603588104,
      0.18682314455509186
    ],
    [
      -0.10446074604988098,
      -0.29918643832206726,
      0.040834005922079086,
      -0.3202129006385803,
      0.08215594291687012,
      -0.31386128067970276,
      0.18133890628814697,
      -0.10663749277591705
    ],
    [
      0.31497493386268616,
      0.05999075248837471,
      -0.4861506223678589,
      0.039358314126729965,
      0.02172842249274254,
      -0.13078573346138,
      0.3401065766811371,
      -0.19596435129642487
    ],
    [
      0.005781617481261492,
      0.17916378378868103,
      -0.3850318491458893,
      0.15734460949897766,
      -0.2549991309642792,
      0.28631365299224854,
      0.36155083775520325,
      0.25218626856803894
    ],
    [
      0.05476882681250572,
      -0.0362812839448452,
      0.2608928680419922,
      -0.23433351516723633,
      -0.10147326439619064,
      -0.025612909346818924,
      0.30743926763534546,
      -0.02345704287290573
    ],
    [
      -0.2218686044216156,
      0.1540674865245819,
      -0.29701924324035645,
      -0.20538237690925598,
      -0.10733215510845184,
      -0.29134365916252136,
      0.18715186417102814,
      -0.20565733313560486
    ],
    [
      0.27916157245635986,
      0.23077067732810974,
      -0.20131738483905792,
      0.000576850725337863,
      0.0682213231921196,
      -0.1695527732372284,
      -0.037427082657814026,
      -0.395173043012619
    ],
    [
      -0.04200642928481102,
      -0.1878829002380371,
      -0.2162759155035019,
      -0.22245562076568604,
      -0.15819035470485687,
      -0.2534254789352417,
      -0.20659835636615753,
      -0.18053807318210602
    ],
    [
      -0.09914442896842957,
      0.010263249278068542,
      -0.04167231544852257,
      -0.3630301058292389,
      0.07406389713287354,
      -0.07788192480802536,
      -0.13224312663078308,
      -0.12920142710208893
    ],
    [
      -0.19502395391464233,
      0.15790300071239471,
      -0.34209901094436646,
      0.19241414964199066,
      -0.05759342014789581,
      0.022853409871459007,
      0.03672216460108757,
      -0.0182417631149292
    ],
    [
      0.13157187402248383,
      -0.15117473900318146,
      0.021456973627209663,
      0.30035296082496643,
      -0.27928000688552856,
      -0.3175276815891266,
      -0.0598943792283535,
      -0.04182082787156105
    ]
  ],
  "layers.0.bias": [
    -0.36235642433166504,
    -0.2759006917476654,
    -0.04664972051978111,
    -0.05686993896961212,
    -0.2521326243877411,
    0.30783918499946594,
    0.09645074605941772,
    -0.18441073596477509,
    -0.08289752900600433,
    -0.020700976252555847,
    -0.014140041545033455,
    -0.3802127540111542,
    -0.30573293566703796,
    0.2318580001592636,
    -0.10772298276424408,
    -0.32765236496925354
  ],
  "layers.2.weight": [
    [
      0.2648736238479614,
      -0.23575863242149353,
      0.3365488350391388,
      0.06694819033145905,
      0.3266679644584656,
      -0.32241734862327576,
      0.09720227122306824,
      0.21722397208213806,
      0.18604837357997894,
      0.0660245418548584,
      0.09172950685024261,
      0.08611509203910828,
      -0.11571922898292542,
      0.05227218568325043,
      -0.13675066828727722,
      0.025149136781692505
    ]
  ],
  "layers.2.bias": [
    -0.19171854853630066
  ]
}